encog,BasicNetwork,java,3.2.0,1,1407192162080
[BASIC]
[BASIC:PARAMS]
[BASIC:NETWORK]
beginTraining=0
connectionLimit=0
contextTargetOffset=0,0,0
contextTargetSize=0,0,0
endTraining=2
hasContext=f
inputCount=3
layerCounts=6,6,4
layerFeedCounts=6,5,3
layerContextCount=0,0,0
layerIndex=0,6,12
output=0,0,0,0,0,0,0,0,0,0,0,1,0,0,0,1
outputCount=6
weightIndex=0,36,56
weights=-324.1291201905,-865.8718846035,-328.0839112906,-985.0659341779,-1047.3580054665,-1104.3184655608,-235.326570769,-541.8067218854,1557.7707070103,-716.0071875612,-1053.1234253139,-1098.66084501,-1277.4486781679,-116.0030802867,1369.8158075064,1132.232054573,-102.962275566,-643.8875954531,-2062.2629408328,1752.7435977426,-818.4185372997,-79.0311889682,-583.4576595357,1185.6718455527,820.7446451999,-641.2108945555,-688.3016553101,-666.0114797118,-754.0682025608,-524.089956049,-277.4284388226,-742.8656084498,-282.2749031977,-903.7501714928,-1107.0405753361,-1215.8407268095,23584.8593795357,41515.0801384642,255632.3649996554,-77142.3739607987,-26485.8265544676,-20670.5389025164,-311782.9022904963,32325.5422100541,7216.1525646546,68413.1418240651,-2153.9323531371,-36147.473639649,12.6094223113,124478.2770146215,-69067.7716218721,-12446.3925723345,-128711.968281468,-162751.8513464495,-692885.8959465009,31168.1672561942
biasActivation=0,1,1
[BASIC:ACTIVATION]
"org.encog.engine.network.activation.ActivationSigmoid"
"org.encog.engine.network.activation.ActivationSigmoid"
"org.encog.engine.network.activation.ActivationLinear"
